digraph Tree {
node [shape=box] ;
0 [label="X[12] <= 0.5\ngini = 0.4573\nsamples = 1728\nvalue = [1210, 384, 69, 65]"] ;
1 [label="X[26] <= 0.5\ngini = 0.5792\nsamples = 1152\nvalue = [634, 384, 69, 65]"] ;
0 -> 1 [labeldistance=2.5, labelangle=45, headlabel="True"] ;
2 [label="gini = 0.0\nsamples = 384\nvalue = [384, 0, 0, 0]"] ;
1 -> 2 ;
3 [label="X[21] <= 1.5\ngini = 0.6288\nsamples = 768\nvalue = [250, 384, 69, 65]"] ;
1 -> 3 ;
4 [label="X[22] <= 1.5\ngini = 0.498\nsamples = 384\nvalue = [204, 180, 0, 0]"] ;
3 -> 4 ;
5 [label="X[7] <= 0.5\ngini = 0.3047\nsamples = 192\nvalue = [156, 36, 0, 0]"] ;
4 -> 5 ;
6 [label="X[21] <= 0.5\ngini = 0.4688\nsamples = 96\nvalue = [60, 36, 0, 0]"] ;
5 -> 6 ;
7 [label="gini = 0.0\nsamples = 48\nvalue = [48, 0, 0, 0]"] ;
6 -> 7 ;
8 [label="X[17] <= 0.5\ngini = 0.375\nsamples = 48\nvalue = [12, 36, 0, 0]"] ;
6 -> 8 ;
9 [label="X[15] <= 0.5\ngini = 0.1699\nsamples = 32\nvalue = [3, 29, 0, 0]"] ;
8 -> 9 ;
10 [label="X[18] <= 0.5\ngini = 0.3047\nsamples = 16\nvalue = [3, 13, 0, 0]"] ;
9 -> 10 ;
11 [label="X[23] <= 1.5\ngini = 0.4688\nsamples = 8\nvalue = [3, 5, 0, 0]"] ;
10 -> 11 ;
12 [label="X[14] <= 0.5\ngini = 0.375\nsamples = 4\nvalue = [3, 1, 0, 0]"] ;
11 -> 12 ;
13 [label="gini = 0.0\nsamples = 2\nvalue = [2, 0, 0, 0]"] ;
12 -> 13 ;
14 [label="X[9] <= 0.5\ngini = 0.5\nsamples = 2\nvalue = [1, 1, 0, 0]"] ;
12 -> 14 ;
15 [label="gini = 0.0\nsamples = 1\nvalue = [1, 0, 0, 0]"] ;
14 -> 15 ;
16 [label="gini = 0.0\nsamples = 1\nvalue = [0, 1, 0, 0]"] ;
14 -> 16 ;
17 [label="gini = 0.0\nsamples = 4\nvalue = [0, 4, 0, 0]"] ;
11 -> 17 ;
18 [label="gini = 0.0\nsamples = 8\nvalue = [0, 8, 0, 0]"] ;
10 -> 18 ;
19 [label="gini = 0.0\nsamples = 16\nvalue = [0, 16, 0, 0]"] ;
9 -> 19 ;
20 [label="X[18] <= 0.5\ngini = 0.4922\nsamples = 16\nvalue = [9, 7, 0, 0]"] ;
8 -> 20 ;
21 [label="gini = 0.0\nsamples = 8\nvalue = [8, 0, 0, 0]"] ;
20 -> 21 ;
22 [label="X[8] <= 0.5\ngini = 0.2188\nsamples = 8\nvalue = [1, 7, 0, 0]"] ;
20 -> 22 ;
23 [label="gini = 0.0\nsamples = 6\nvalue = [0, 6, 0, 0]"] ;
22 -> 23 ;
24 [label="X[24] <= 1.5\ngini = 0.5\nsamples = 2\nvalue = [1, 1, 0, 0]"] ;
22 -> 24 ;
25 [label="gini = 0.0\nsamples = 1\nvalue = [0, 1, 0, 0]"] ;
24 -> 25 ;
26 [label="gini = 0.0\nsamples = 1\nvalue = [1, 0, 0, 0]"] ;
24 -> 26 ;
27 [label="gini = 0.0\nsamples = 96\nvalue = [96, 0, 0, 0]"] ;
5 -> 27 ;
28 [label="X[25] <= 0.5\ngini = 0.375\nsamples = 192\nvalue = [48, 144, 0, 0]"] ;
4 -> 28 ;
29 [label="X[26] <= 1.5\ngini = 0.4922\nsamples = 64\nvalue = [36, 28, 0, 0]"] ;
28 -> 29 ;
30 [label="gini = 0.0\nsamples = 32\nvalue = [32, 0, 0, 0]"] ;
29 -> 30 ;
31 [label="X[8] <= 0.5\ngini = 0.2188\nsamples = 32\nvalue = [4, 28, 0, 0]"] ;
29 -> 31 ;
32 [label="gini = 0.0\nsamples = 24\nvalue = [0, 24, 0, 0]"] ;
31 -> 32 ;
33 [label="X[13] <= 0.5\ngini = 0.5\nsamples = 8\nvalue = [4, 4, 0, 0]"] ;
31 -> 33 ;
34 [label="gini = 0.0\nsamples = 4\nvalue = [4, 0, 0, 0]"] ;
33 -> 34 ;
35 [label="gini = 0.0\nsamples = 4\nvalue = [0, 4, 0, 0]"] ;
33 -> 35 ;
36 [label="X[26] <= 1.5\ngini = 0.1699\nsamples = 128\nvalue = [12, 116, 0, 0]"] ;
28 -> 36 ;
37 [label="X[25] <= 1.5\ngini = 0.3047\nsamples = 64\nvalue = [12, 52, 0, 0]"] ;
36 -> 37 ;
38 [label="X[23] <= 1.5\ngini = 0.4688\nsamples = 32\nvalue = [12, 20, 0, 0]"] ;
37 -> 38 ;
39 [label="X[23] <= 0.5\ngini = 0.375\nsamples = 16\nvalue = [12, 4, 0, 0]"] ;
38 -> 39 ;
40 [label="gini = 0.0\nsamples = 8\nvalue = [8, 0, 0, 0]"] ;
39 -> 40 ;
41 [label="X[24] <= 1.5\ngini = 0.5\nsamples = 8\nvalue = [4, 4, 0, 0]"] ;
39 -> 41 ;
42 [label="gini = 0.0\nsamples = 4\nvalue = [4, 0, 0, 0]"] ;
41 -> 42 ;
43 [label="gini = 0.0\nsamples = 4\nvalue = [0, 4, 0, 0]"] ;
41 -> 43 ;
44 [label="gini = 0.0\nsamples = 16\nvalue = [0, 16, 0, 0]"] ;
38 -> 44 ;
45 [label="gini = 0.0\nsamples = 32\nvalue = [0, 32, 0, 0]"] ;
37 -> 45 ;
46 [label="gini = 0.0\nsamples = 64\nvalue = [0, 64, 0, 0]"] ;
36 -> 46 ;
47 [label="X[22] <= 1.5\ngini = 0.6425\nsamples = 384\nvalue = [46, 204, 69, 65]"] ;
3 -> 47 ;
48 [label="X[25] <= 0.5\ngini = 0.4169\nsamples = 192\nvalue = [38, 141, 0, 13]"] ;
47 -> 48 ;
49 [label="X[18] <= 0.5\ngini = 0.4956\nsamples = 64\nvalue = [29, 35, 0, 0]"] ;
48 -> 49 ;
50 [label="X[21] <= 2.5\ngini = 0.3418\nsamples = 32\nvalue = [25, 7, 0, 0]"] ;
49 -> 50 ;
51 [label="gini = 0.0\nsamples = 16\nvalue = [16, 0, 0, 0]"] ;
50 -> 51 ;
52 [label="X[7] <= 0.5\ngini = 0.4922\nsamples = 16\nvalue = [9, 7, 0, 0]"] ;
50 -> 52 ;
53 [label="X[23] <= 0.5\ngini = 0.2188\nsamples = 8\nvalue = [1, 7, 0, 0]"] ;
52 -> 53 ;
54 [label="X[14] <= 0.5\ngini = 0.5\nsamples = 2\nvalue = [1, 1, 0, 0]"] ;
53 -> 54 ;
55 [label="gini = 0.0\nsamples = 1\nvalue = [0, 1, 0, 0]"] ;
54 -> 55 ;
56 [label="gini = 0.0\nsamples = 1\nvalue = [1, 0, 0, 0]"] ;
54 -> 56 ;
57 [label="gini = 0.0\nsamples = 6\nvalue = [0, 6, 0, 0]"] ;
53 -> 57 ;
58 [label="gini = 0.0\nsamples = 8\nvalue = [8, 0, 0, 0]"] ;
52 -> 58 ;
59 [label="X[23] <= 0.5\ngini = 0.2188\nsamples = 32\nvalue = [4, 28, 0, 0]"] ;
49 -> 59 ;
60 [label="X[14] <= 0.5\ngini = 0.5\nsamples = 8\nvalue = [4, 4, 0, 0]"] ;
59 -> 60 ;
61 [label="gini = 0.0\nsamples = 4\nvalue = [0, 4, 0, 0]"] ;
60 -> 61 ;
62 [label="gini = 0.0\nsamples = 4\nvalue = [4, 0, 0, 0]"] ;
60 -> 62 ;
63 [label="gini = 0.0\nsamples = 24\nvalue = [0, 24, 0, 0]"] ;
59 -> 63 ;
64 [label="X[7] <= 0.5\ngini = 0.299\nsamples = 128\nvalue = [9, 106, 0, 13]"] ;
48 -> 64 ;
65 [label="X[26] <= 1.5\ngini = 0.394\nsamples = 64\nvalue = [3, 48, 0, 13]"] ;
64 -> 65 ;
66 [label="X[16] <= 0.5\ngini = 0.1699\nsamples = 32\nvalue = [3, 29, 0, 0]"] ;
65 -> 66 ;
67 [label="gini = 0.0\nsamples = 16\nvalue = [0, 16, 0, 0]"] ;
66 -> 67 ;
68 [label="X[21] <= 2.5\ngini = 0.3047\nsamples = 16\nvalue = [3, 13, 0, 0]"] ;
66 -> 68 ;
69 [label="X[23] <= 1.5\ngini = 0.4688\nsamples = 8\nvalue = [3, 5, 0, 0]"] ;
68 -> 69 ;
70 [label="X[9] <= 0.5\ngini = 0.375\nsamples = 4\nvalue = [3, 1, 0, 0]"] ;
69 -> 70 ;
71 [label="gini = 0.0\nsamples = 2\nvalue = [2, 0, 0, 0]"] ;
70 -> 71 ;
72 [label="X[14] <= 0.5\ngini = 0.5\nsamples = 2\nvalue = [1, 1, 0, 0]"] ;
70 -> 72 ;
73 [label="gini = 0.0\nsamples = 1\nvalue = [1, 0, 0, 0]"] ;
72 -> 73 ;
74 [label="gini = 0.0\nsamples = 1\nvalue = [0, 1, 0, 0]"] ;
72 -> 74 ;
75 [label="gini = 0.0\nsamples = 4\nvalue = [0, 4, 0, 0]"] ;
69 -> 75 ;
76 [label="gini = 0.0\nsamples = 8\nvalue = [0, 8, 0, 0]"] ;
68 -> 76 ;
77 [label="X[2] <= 0.5\ngini = 0.4824\nsamples = 32\nvalue = [0, 19, 0, 13]"] ;
65 -> 77 ;
78 [label="X[25] <= 1.5\ngini = 0.3047\nsamples = 16\nvalue = [0, 3, 0, 13]"] ;
77 -> 78 ;
79 [label="X[23] <= 1.5\ngini = 0.4688\nsamples = 8\nvalue = [0, 3, 0, 5]"] ;
78 -> 79 ;
80 [label="X[13] <= 0.5\ngini = 0.375\nsamples = 4\nvalue = [0, 3, 0, 1]"] ;
79 -> 80 ;
81 [label="X[8] <= 0.5\ngini = 0.5\nsamples = 2\nvalue = [0, 1, 0, 1]"] ;
80 -> 81 ;
82 [label="gini = 0.0\nsamples = 1\nvalue = [0, 0, 0, 1]"] ;
81 -> 82 ;
83 [label="gini = 0.0\nsamples = 1\nvalue = [0, 1, 0, 0]"] ;
81 -> 83 ;
84 [label="gini = 0.0\nsamples = 2\nvalue = [0, 2, 0, 0]"] ;
80 -> 84 ;
85 [label="gini = 0.0\nsamples = 4\nvalue = [0, 0, 0, 4]"] ;
79 -> 85 ;
86 [label="gini = 0.0\nsamples = 8\nvalue = [0, 0, 0, 8]"] ;
78 -> 86 ;
87 [label="gini = 0.0\nsamples = 16\nvalue = [0, 16, 0, 0]"] ;
77 -> 87 ;
88 [label="X[25] <= 1.5\ngini = 0.1699\nsamples = 64\nvalue = [6, 58, 0, 0]"] ;
64 -> 88 ;
89 [label="X[23] <= 1.5\ngini = 0.3047\nsamples = 32\nvalue = [6, 26, 0, 0]"] ;
88 -> 89 ;
90 [label="X[26] <= 1.5\ngini = 0.4688\nsamples = 16\nvalue = [6, 10, 0, 0]"] ;
89 -> 90 ;
91 [label="X[24] <= 1.5\ngini = 0.375\nsamples = 8\nvalue = [6, 2, 0, 0]"] ;
90 -> 91 ;
92 [label="gini = 0.0\nsamples = 4\nvalue = [4, 0, 0, 0]"] ;
91 -> 92 ;
93 [label="X[23] <= 0.5\ngini = 0.5\nsamples = 4\nvalue = [2, 2, 0, 0]"] ;
91 -> 93 ;
94 [label="gini = 0.0\nsamples = 2\nvalue = [2, 0, 0, 0]"] ;
93 -> 94 ;
95 [label="gini = 0.0\nsamples = 2\nvalue = [0, 2, 0, 0]"] ;
93 -> 95 ;
96 [label="gini = 0.0\nsamples = 8\nvalue = [0, 8, 0, 0]"] ;
90 -> 96 ;
97 [label="gini = 0.0\nsamples = 16\nvalue = [0, 16, 0, 0]"] ;
89 -> 97 ;
98 [label="gini = 0.0\nsamples = 32\nvalue = [0, 32, 0, 0]"] ;
88 -> 98 ;
99 [label="X[26] <= 1.5\ngini = 0.6881\nsamples = 192\nvalue = [8, 63, 69, 52]"] ;
47 -> 99 ;
100 [label="X[17] <= 0.5\ngini = 0.5284\nsamples = 96\nvalue = [4, 53, 39, 0]"] ;
99 -> 100 ;
101 [label="X[5] <= 0.5\ngini = 0.4761\nsamples = 64\nvalue = [0, 25, 39, 0]"] ;
100 -> 101 ;
102 [label="X[21] <= 2.5\ngini = 0.4824\nsamples = 32\nvalue = [0, 19, 13, 0]"] ;
101 -> 102 ;
103 [label="gini = 0.0\nsamples = 16\nvalue = [0, 16, 0, 0]"] ;
102 -> 103 ;
104 [label="X[23] <= 1.5\ngini = 0.3047\nsamples = 16\nvalue = [0, 3, 13, 0]"] ;
102 -> 104 ;
105 [label="X[25] <= 1.5\ngini = 0.4688\nsamples = 8\nvalue = [0, 3, 5, 0]"] ;
104 -> 105 ;
106 [label="X[23] <= 0.5\ngini = 0.375\nsamples = 4\nvalue = [0, 3, 1, 0]"] ;
105 -> 106 ;
107 [label="gini = 0.0\nsamples = 2\nvalue = [0, 2, 0, 0]"] ;
106 -> 107 ;
108 [label="X[14] <= 0.5\ngini = 0.5\nsamples = 2\nvalue = [0, 1, 1, 0]"] ;
106 -> 108 ;
109 [label="gini = 0.0\nsamples = 1\nvalue = [0, 1, 0, 0]"] ;
108 -> 109 ;
110 [label="gini = 0.0\nsamples = 1\nvalue = [0, 0, 1, 0]"] ;
108 -> 110 ;
111 [label="gini = 0.0\nsamples = 4\nvalue = [0, 0, 4, 0]"] ;
105 -> 111 ;
112 [label="gini = 0.0\nsamples = 8\nvalue = [0, 0, 8, 0]"] ;
104 -> 112 ;
113 [label="X[16] <= 0.5\ngini = 0.3047\nsamples = 32\nvalue = [0, 6, 26, 0]"] ;
101 -> 113 ;
114 [label="gini = 0.0\nsamples = 16\nvalue = [0, 0, 16, 0]"] ;
113 -> 114 ;
115 [label="X[23] <= 1.5\ngini = 0.4688\nsamples = 16\nvalue = [0, 6, 10, 0]"] ;
113 -> 115 ;
116 [label="X[8] <= 0.5\ngini = 0.375\nsamples = 8\nvalue = [0, 6, 2, 0]"] ;
115 -> 116 ;
117 [label="X[14] <= 0.5\ngini = 0.5\nsamples = 4\nvalue = [0, 2, 2, 0]"] ;
116 -> 117 ;
118 [label="gini = 0.0\nsamples = 2\nvalue = [0, 2, 0, 0]"] ;
117 -> 118 ;
119 [label="gini = 0.0\nsamples = 2\nvalue = [0, 0, 2, 0]"] ;
117 -> 119 ;
120 [label="gini = 0.0\nsamples = 4\nvalue = [0, 4, 0, 0]"] ;
116 -> 120 ;
121 [label="gini = 0.0\nsamples = 8\nvalue = [0, 0, 8, 0]"] ;
115 -> 121 ;
122 [label="X[23] <= 0.5\ngini = 0.2188\nsamples = 32\nvalue = [4, 28, 0, 0]"] ;
100 -> 122 ;
123 [label="X[14] <= 0.5\ngini = 0.5\nsamples = 8\nvalue = [4, 4, 0, 0]"] ;
122 -> 123 ;
124 [label="gini = 0.0\nsamples = 4\nvalue = [0, 4, 0, 0]"] ;
123 -> 124 ;
125 [label="gini = 0.0\nsamples = 4\nvalue = [4, 0, 0, 0]"] ;
123 -> 125 ;
126 [label="gini = 0.0\nsamples = 24\nvalue = [0, 24, 0, 0]"] ;
122 -> 126 ;
127 [label="X[17] <= 0.5\ngini = 0.5964\nsamples = 96\nvalue = [4, 10, 30, 52]"] ;
99 -> 127 ;
128 [label="X[23] <= 1.5\ngini = 0.3179\nsamples = 64\nvalue = [0, 3, 9, 52]"] ;
127 -> 128 ;
129 [label="X[15] <= 0.5\ngini = 0.5215\nsamples = 32\nvalue = [0, 3, 9, 20]"] ;
128 -> 129 ;
130 [label="X[8] <= 0.5\ngini = 0.5859\nsamples = 16\nvalue = [0, 3, 9, 4]"] ;
129 -> 130 ;
131 [label="X[13] <= 0.5\ngini = 0.5938\nsamples = 8\nvalue = [0, 1, 3, 4]"] ;
130 -> 131 ;
132 [label="gini = 0.0\nsamples = 4\nvalue = [0, 0, 0, 4]"] ;
131 -> 132 ;
133 [label="X[2] <= 0.5\ngini = 0.375\nsamples = 4\nvalue = [0, 1, 3, 0]"] ;
131 -> 133 ;
134 [label="gini = 0.0\nsamples = 2\nvalue = [0, 0, 2, 0]"] ;
133 -> 134 ;
135 [label="X[5] <= 0.5\ngini = 0.5\nsamples = 2\nvalue = [0, 1, 1, 0]"] ;
133 -> 135 ;
136 [label="gini = 0.0\nsamples = 1\nvalue = [0, 1, 0, 0]"] ;
135 -> 136 ;
137 [label="gini = 0.0\nsamples = 1\nvalue = [0, 0, 1, 0]"] ;
135 -> 137 ;
138 [label="X[5] <= 0.5\ngini = 0.375\nsamples = 8\nvalue = [0, 2, 6, 0]"] ;
130 -> 138 ;
139 [label="X[1] <= 0.5\ngini = 0.5\nsamples = 4\nvalue = [0, 2, 2, 0]"] ;
138 -> 139 ;
140 [label="gini = 0.0\nsamples = 2\nvalue = [0, 2, 0, 0]"] ;
139 -> 140 ;
141 [label="gini = 0.0\nsamples = 2\nvalue = [0, 0, 2, 0]"] ;
139 -> 141 ;
142 [label="gini = 0.0\nsamples = 4\nvalue = [0, 0, 4, 0]"] ;
138 -> 142 ;
143 [label="gini = 0.0\nsamples = 16\nvalue = [0, 0, 0, 16]"] ;
129 -> 143 ;
144 [label="gini = 0.0\nsamples = 32\nvalue = [0, 0, 0, 32]"] ;
128 -> 144 ;
145 [label="X[21] <= 2.5\ngini = 0.5059\nsamples = 32\nvalue = [4, 7, 21, 0]"] ;
127 -> 145 ;
146 [label="X[22] <= 2.5\ngini = 0.6016\nsamples = 16\nvalue = [2, 7, 7, 0]"] ;
145 -> 146 ;
147 [label="X[8] <= 0.5\ngini = 0.2188\nsamples = 8\nvalue = [1, 7, 0, 0]"] ;
146 -> 147 ;
148 [label="gini = 0.0\nsamples = 6\nvalue = [0, 6, 0, 0]"] ;
147 -> 148 ;
149 [label="X[24] <= 1.5\ngini = 0.5\nsamples = 2\nvalue = [1, 1, 0, 0]"] ;
147 -> 149 ;
150 [label="gini = 0.0\nsamples = 1\nvalue = [0, 1, 0, 0]"] ;
149 -> 150 ;
151 [label="gini = 0.0\nsamples = 1\nvalue = [1, 0, 0, 0]"] ;
149 -> 151 ;
152 [label="X[8] <= 0.5\ngini = 0.2188\nsamples = 8\nvalue = [1, 0, 7, 0]"] ;
146 -> 152 ;
153 [label="gini = 0.0\nsamples = 6\nvalue = [0, 0, 6, 0]"] ;
152 -> 153 ;
154 [label="X[14] <= 0.5\ngini = 0.5\nsamples = 2\nvalue = [1, 0, 1, 0]"] ;
152 -> 154 ;
155 [label="gini = 0.0\nsamples = 1\nvalue = [0, 0, 1, 0]"] ;
154 -> 155 ;
156 [label="gini = 0.0\nsamples = 1\nvalue = [1, 0, 0, 0]"] ;
154 -> 156 ;
157 [label="X[23] <= 0.5\ngini = 0.2188\nsamples = 16\nvalue = [2, 0, 14, 0]"] ;
145 -> 157 ;
158 [label="X[24] <= 1.5\ngini = 0.5\nsamples = 4\nvalue = [2, 0, 2, 0]"] ;
157 -> 158 ;
159 [label="gini = 0.0\nsamples = 2\nvalue = [0, 0, 2, 0]"] ;
158 -> 159 ;
160 [label="gini = 0.0\nsamples = 2\nvalue = [2, 0, 0, 0]"] ;
158 -> 160 ;
161 [label="gini = 0.0\nsamples = 12\nvalue = [0, 0, 12, 0]"] ;
157 -> 161 ;
162 [label="gini = 0.0\nsamples = 576\nvalue = [576, 0, 0, 0]"] ;
0 -> 162 [labeldistance=2.5, labelangle=-45, headlabel="False"] ;
}